digraph Tree {
node [shape=box, fontname="helvetica"] ;
edge [fontname="helvetica"] ;
0 [label="X[0] <= 8043.5\nsquared_error = 12867768.04\nsamples = 450\nvalue = 24925.459"] ;
1 [label="X[0] <= 162.5\nsquared_error = 9859794.439\nsamples = 381\nvalue = 25138.702"] ;
0 -> 1 [labeldistance=2.5, labelangle=45, headlabel="True"] ;
2 [label="X[0] <= 3.0\nsquared_error = 4071685.228\nsamples = 12\nvalue = 23051.05"] ;
1 -> 2 ;
3 [label="squared_error = 0.0\nsamples = 1\nvalue = 28604.3"] ;
2 -> 3 ;
4 [label="squared_error = 1383466.308\nsamples = 11\nvalue = 22546.209"] ;
2 -> 4 ;
5 [label="X[0] <= 1122.0\nsquared_error = 9901683.341\nsamples = 369\nvalue = 25206.593"] ;
1 -> 5 ;
6 [label="squared_error = 13889922.666\nsamples = 49\nvalue = 25801.918"] ;
5 -> 6 ;
7 [label="squared_error = 9228404.917\nsamples = 320\nvalue = 25115.434"] ;
5 -> 7 ;
8 [label="X[0] <= 9758.5\nsquared_error = 27839477.772\nsamples = 69\nvalue = 23747.984"] ;
0 -> 8 [labeldistance=2.5, labelangle=-45, headlabel="False"] ;
9 [label="X[0] <= 9670.5\nsquared_error = 46381879.446\nsamples = 27\nvalue = 21053.144"] ;
8 -> 9 ;
10 [label="squared_error = 22177525.794\nsamples = 24\nvalue = 22695.167"] ;
9 -> 10 ;
11 [label="squared_error = 45887646.229\nsamples = 3\nvalue = 7916.967"] ;
9 -> 11 ;
12 [label="X[0] <= 10695.0\nsquared_error = 8249631.632\nsamples = 42\nvalue = 25480.381"] ;
8 -> 12 ;
13 [label="squared_error = 6855445.834\nsamples = 14\nvalue = 24439.35"] ;
12 -> 13 ;
14 [label="squared_error = 8133915.449\nsamples = 28\nvalue = 26000.896"] ;
12 -> 14 ;
}